digraph Tree {
node [shape=box] ;
0 [label="price <= 1.5\nentropy = 1.223\nsamples = 1296\nvalue = [905, 283, 56, 52]"] ;
1 [label="entropy = 0.0\nsamples = 431\nvalue = [431, 0, 0, 0]"] ;
0 -> 1 [labeldistance=2.5, labelangle=45, headlabel="True"] ;
2 [label="discount <= 2.5\nentropy = 1.502\nsamples = 865\nvalue = [474, 283, 56, 52]"] ;
0 -> 2 [labeldistance=2.5, labelangle=-45, headlabel="False"] ;
3 [label="entropy = 0.0\nsamples = 288\nvalue = [288, 0, 0, 0]"] ;
2 -> 3 ;
4 [label="service <= 2.5\nentropy = 1.67\nsamples = 577\nvalue = [186, 283, 56, 52]"] ;
2 -> 4 ;
5 [label="quality <= 2.5\nentropy = 1.756\nsamples = 297\nvalue = [36, 153, 56, 52]"] ;
4 -> 5 ;
6 [label="price <= 2.5\nentropy = 1.709\nsamples = 149\nvalue = [4, 48, 56, 41]"] ;
5 -> 6 ;
7 [label="space <= 1.5\nentropy = 1.145\nsamples = 71\nvalue = [2, 39, 30, 0]"] ;
6 -> 7 ;
8 [label="oil <= 2.5\nentropy = 0.414\nsamples = 24\nvalue = [2, 22, 0, 0]"] ;
7 -> 8 ;
9 [label="discount <= 3.5\nentropy = 0.971\nsamples = 5\nvalue = [2, 3, 0, 0]"] ;
8 -> 9 ;
10 [label="entropy = 0.0\nsamples = 2\nvalue = [2, 0, 0, 0]"] ;
9 -> 10 ;
11 [label="entropy = 0.0\nsamples = 3\nvalue = [0, 3, 0, 0]"] ;
9 -> 11 ;
12 [label="entropy = 0.0\nsamples = 19\nvalue = [0, 19, 0, 0]"] ;
8 -> 12 ;
13 [label="quality <= 1.5\nentropy = 0.944\nsamples = 47\nvalue = [0, 17, 30, 0]"] ;
7 -> 13 ;
14 [label="space <= 2.5\nentropy = 0.544\nsamples = 24\nvalue = [0, 3, 21, 0]"] ;
13 -> 14 ;
15 [label="oil <= 2.5\nentropy = 0.811\nsamples = 12\nvalue = [0, 3, 9, 0]"] ;
14 -> 15 ;
16 [label="entropy = 0.0\nsamples = 2\nvalue = [0, 2, 0, 0]"] ;
15 -> 16 ;
17 [label="oil <= 3.5\nentropy = 0.469\nsamples = 10\nvalue = [0, 1, 9, 0]"] ;
15 -> 17 ;
18 [label="discount <= 3.5\nentropy = 0.918\nsamples = 3\nvalue = [0, 1, 2, 0]"] ;
17 -> 18 ;
19 [label="entropy = 0.0\nsamples = 2\nvalue = [0, 0, 2, 0]"] ;
18 -> 19 ;
20 [label="entropy = 0.0\nsamples = 1\nvalue = [0, 1, 0, 0]"] ;
18 -> 20 ;
21 [label="entropy = 0.0\nsamples = 7\nvalue = [0, 0, 7, 0]"] ;
17 -> 21 ;
22 [label="entropy = 0.0\nsamples = 12\nvalue = [0, 0, 12, 0]"] ;
14 -> 22 ;
23 [label="service <= 1.5\nentropy = 0.966\nsamples = 23\nvalue = [0, 14, 9, 0]"] ;
13 -> 23 ;
24 [label="oil <= 3.5\nentropy = 0.811\nsamples = 12\nvalue = [0, 3, 9, 0]"] ;
23 -> 24 ;
25 [label="space <= 2.5\nentropy = 1.0\nsamples = 6\nvalue = [0, 3, 3, 0]"] ;
24 -> 25 ;
26 [label="entropy = 0.0\nsamples = 3\nvalue = [0, 3, 0, 0]"] ;
25 -> 26 ;
27 [label="entropy = 0.0\nsamples = 3\nvalue = [0, 0, 3, 0]"] ;
25 -> 27 ;
28 [label="entropy = 0.0\nsamples = 6\nvalue = [0, 0, 6, 0]"] ;
24 -> 28 ;
29 [label="entropy = 0.0\nsamples = 11\nvalue = [0, 11, 0, 0]"] ;
23 -> 29 ;
30 [label="space <= 1.5\nentropy = 1.511\nsamples = 78\nvalue = [2, 9, 26, 41]"] ;
6 -> 30 ;
31 [label="service <= 1.5\nentropy = 1.152\nsamples = 28\nvalue = [2, 7, 19, 0]"] ;
30 -> 31 ;
32 [label="entropy = 0.0\nsamples = 13\nvalue = [0, 0, 13, 0]"] ;
31 -> 32 ;
33 [label="quality <= 1.5\nentropy = 1.429\nsamples = 15\nvalue = [2, 7, 6, 0]"] ;
31 -> 33 ;
34 [label="oil <= 2.5\nentropy = 0.592\nsamples = 7\nvalue = [1, 0, 6, 0]"] ;
33 -> 34 ;
35 [label="discount <= 3.5\nentropy = 1.0\nsamples = 2\nvalue = [1, 0, 1, 0]"] ;
34 -> 35 ;
36 [label="entropy = 0.0\nsamples = 1\nvalue = [1, 0, 0, 0]"] ;
35 -> 36 ;
37 [label="entropy = 0.0\nsamples = 1\nvalue = [0, 0, 1, 0]"] ;
35 -> 37 ;
38 [label="entropy = 0.0\nsamples = 5\nvalue = [0, 0, 5, 0]"] ;
34 -> 38 ;
39 [label="oil <= 2.5\nentropy = 0.544\nsamples = 8\nvalue = [1, 7, 0, 0]"] ;
33 -> 39 ;
40 [label="discount <= 3.5\nentropy = 1.0\nsamples = 2\nvalue = [1, 1, 0, 0]"] ;
39 -> 40 ;
41 [label="entropy = 0.0\nsamples = 1\nvalue = [1, 0, 0, 0]"] ;
40 -> 41 ;
42 [label="entropy = 0.0\nsamples = 1\nvalue = [0, 1, 0, 0]"] ;
40 -> 42 ;
43 [label="entropy = 0.0\nsamples = 6\nvalue = [0, 6, 0, 0]"] ;
39 -> 43 ;
44 [label="space <= 2.5\nentropy = 0.818\nsamples = 50\nvalue = [0, 2, 7, 41]"] ;
30 -> 44 ;
45 [label="oil <= 3.5\nentropy = 1.289\nsamples = 22\nvalue = [0, 2, 7, 13]"] ;
44 -> 45 ;
46 [label="quality <= 1.5\nentropy = 1.157\nsamples = 10\nvalue = [0, 2, 7, 1]"] ;
45 -> 46 ;
47 [label="oil <= 2.5\nentropy = 0.65\nsamples = 6\nvalue = [0, 0, 5, 1]"] ;
46 -> 47 ;
48 [label="entropy = 0.0\nsamples = 4\nvalue = [0, 0, 4, 0]"] ;
47 -> 48 ;
49 [label="discount <= 3.5\nentropy = 1.0\nsamples = 2\nvalue = [0, 0, 1, 1]"] ;
47 -> 49 ;
50 [label="entropy = 0.0\nsamples = 1\nvalue = [0, 0, 0, 1]"] ;
49 -> 50 ;
51 [label="entropy = 0.0\nsamples = 1\nvalue = [0, 0, 1, 0]"] ;
49 -> 51 ;
52 [label="service <= 1.5\nentropy = 1.0\nsamples = 4\nvalue = [0, 2, 2, 0]"] ;
46 -> 52 ;
53 [label="entropy = 0.0\nsamples = 2\nvalue = [0, 0, 2, 0]"] ;
52 -> 53 ;
54 [label="entropy = 0.0\nsamples = 2\nvalue = [0, 2, 0, 0]"] ;
52 -> 54 ;
55 [label="entropy = 0.0\nsamples = 12\nvalue = [0, 0, 0, 12]"] ;
45 -> 55 ;
56 [label="entropy = 0.0\nsamples = 28\nvalue = [0, 0, 0, 28]"] ;
44 -> 56 ;
57 [label="price <= 2.5\nentropy = 1.108\nsamples = 148\nvalue = [32, 105, 0, 11]"] ;
5 -> 57 ;
58 [label="space <= 2.5\nentropy = 0.949\nsamples = 76\nvalue = [28, 48, 0, 0]"] ;
57 -> 58 ;
59 [label="space <= 1.5\nentropy = 0.985\nsamples = 49\nvalue = [28, 21, 0, 0]"] ;
58 -> 59 ;
60 [label="quality <= 3.5\nentropy = 0.738\nsamples = 24\nvalue = [19, 5, 0, 0]"] ;
59 -> 60 ;
61 [label="service <= 1.5\nentropy = 1.0\nsamples = 10\nvalue = [5, 5, 0, 0]"] ;
60 -> 61 ;
62 [label="entropy = 0.0\nsamples = 5\nvalue = [0, 5, 0, 0]"] ;
61 -> 62 ;
63 [label="entropy = 0.0\nsamples = 5\nvalue = [5, 0, 0, 0]"] ;
61 -> 63 ;
64 [label="entropy = 0.0\nsamples = 14\nvalue = [14, 0, 0, 0]"] ;
60 -> 64 ;
65 [label="oil <= 3.5\nentropy = 0.943\nsamples = 25\nvalue = [9, 16, 0, 0]"] ;
59 -> 65 ;
66 [label="oil <= 2.5\nentropy = 0.89\nsamples = 13\nvalue = [9, 4, 0, 0]"] ;
65 -> 66 ;
67 [label="service <= 1.5\nentropy = 0.592\nsamples = 7\nvalue = [6, 1, 0, 0]"] ;
66 -> 67 ;
68 [label="quality <= 3.5\nentropy = 0.918\nsamples = 3\nvalue = [2, 1, 0, 0]"] ;
67 -> 68 ;
69 [label="entropy = 0.0\nsamples = 1\nvalue = [0, 1, 0, 0]"] ;
68 -> 69 ;
70 [label="entropy = 0.0\nsamples = 2\nvalue = [2, 0, 0, 0]"] ;
68 -> 70 ;
71 [label="entropy = 0.0\nsamples = 4\nvalue = [4, 0, 0, 0]"] ;
67 -> 71 ;
72 [label="discount <= 3.5\nentropy = 1.0\nsamples = 6\nvalue = [3, 3, 0, 0]"] ;
66 -> 72 ;
73 [label="entropy = 0.0\nsamples = 3\nvalue = [0, 3, 0, 0]"] ;
72 -> 73 ;
74 [label="entropy = 0.0\nsamples = 3\nvalue = [3, 0, 0, 0]"] ;
72 -> 74 ;
75 [label="entropy = 0.0\nsamples = 12\nvalue = [0, 12, 0, 0]"] ;
65 -> 75 ;
76 [label="entropy = 0.0\nsamples = 27\nvalue = [0, 27, 0, 0]"] ;
58 -> 76 ;
77 [label="space <= 1.5\nentropy = 0.913\nsamples = 72\nvalue = [4, 57, 0, 11]"] ;
57 -> 77 ;
78 [label="oil <= 2.5\nentropy = 0.65\nsamples = 24\nvalue = [4, 20, 0, 0]"] ;
77 -> 78 ;
79 [label="discount <= 3.5\nentropy = 1.0\nsamples = 8\nvalue = [4, 4, 0, 0]"] ;
78 -> 79 ;
80 [label="entropy = 0.0\nsamples = 4\nvalue = [4, 0, 0, 0]"] ;
79 -> 80 ;
81 [label="entropy = 0.0\nsamples = 4\nvalue = [0, 4, 0, 0]"] ;
79 -> 81 ;
82 [label="entropy = 0.0\nsamples = 16\nvalue = [0, 16, 0, 0]"] ;
78 -> 82 ;
83 [label="service <= 1.5\nentropy = 0.777\nsamples = 48\nvalue = [0, 37, 0, 11]"] ;
77 -> 83 ;
84 [label="quality <= 3.5\nentropy = 0.999\nsamples = 23\nvalue = [0, 12, 0, 11]"] ;
83 -> 84 ;
85 [label="space <= 2.5\nentropy = 0.619\nsamples = 13\nvalue = [0, 2, 0, 11]"] ;
84 -> 85 ;
86 [label="oil <= 3.5\nentropy = 0.918\nsamples = 6\nvalue = [0, 2, 0, 4]"] ;
85 -> 86 ;
87 [label="discount <= 3.5\nentropy = 0.918\nsamples = 3\nvalue = [0, 2, 0, 1]"] ;
86 -> 87 ;
88 [label="entropy = 0.0\nsamples = 1\nvalue = [0, 0, 0, 1]"] ;
87 -> 88 ;
89 [label="entropy = 0.0\nsamples = 2\nvalue = [0, 2, 0, 0]"] ;
87 -> 89 ;
90 [label="entropy = 0.0\nsamples = 3\nvalue = [0, 0, 0, 3]"] ;
86 -> 90 ;
91 [label="entropy = 0.0\nsamples = 7\nvalue = [0, 0, 0, 7]"] ;
85 -> 91 ;
92 [label="entropy = 0.0\nsamples = 10\nvalue = [0, 10, 0, 0]"] ;
84 -> 92 ;
93 [label="entropy = 0.0\nsamples = 25\nvalue = [0, 25, 0, 0]"] ;
83 -> 93 ;
94 [label="quality <= 3.5\nentropy = 0.996\nsamples = 280\nvalue = [150, 130, 0, 0]"] ;
4 -> 94 ;
95 [label="quality <= 2.5\nentropy = 0.963\nsamples = 212\nvalue = [82, 130, 0, 0]"] ;
94 -> 95 ;
96 [label="space <= 1.5\nentropy = 0.808\nsamples = 141\nvalue = [35, 106, 0, 0]"] ;
95 -> 96 ;
97 [label="price <= 2.5\nentropy = 0.992\nsamples = 49\nvalue = [27, 22, 0, 0]"] ;
96 -> 97 ;
98 [label="entropy = 0.0\nsamples = 23\nvalue = [23, 0, 0, 0]"] ;
97 -> 98 ;
99 [label="oil <= 2.5\nentropy = 0.619\nsamples = 26\nvalue = [4, 22, 0, 0]"] ;
97 -> 99 ;
100 [label="discount <= 3.5\nentropy = 1.0\nsamples = 8\nvalue = [4, 4, 0, 0]"] ;
99 -> 100 ;
101 [label="entropy = 0.0\nsamples = 4\nvalue = [4, 0, 0, 0]"] ;
100 -> 101 ;
102 [label="entropy = 0.0\nsamples = 4\nvalue = [0, 4, 0, 0]"] ;
100 -> 102 ;
103 [label="entropy = 0.0\nsamples = 18\nvalue = [0, 18, 0, 0]"] ;
99 -> 103 ;
104 [label="space <= 2.5\nentropy = 0.426\nsamples = 92\nvalue = [8, 84, 0, 0]"] ;
96 -> 104 ;
105 [label="price <= 2.5\nentropy = 0.675\nsamples = 45\nvalue = [8, 37, 0, 0]"] ;
104 -> 105 ;
106 [label="oil <= 2.5\nentropy = 0.946\nsamples = 22\nvalue = [8, 14, 0, 0]"] ;
105 -> 106 ;
107 [label="entropy = 0.0\nsamples = 6\nvalue = [6, 0, 0, 0]"] ;
106 -> 107 ;
108 [label="oil <= 3.5\nentropy = 0.544\nsamples = 16\nvalue = [2, 14, 0, 0]"] ;
106 -> 108 ;
109 [label="discount <= 3.5\nentropy = 0.971\nsamples = 5\nvalue = [2, 3, 0, 0]"] ;
108 -> 109 ;
110 [label="entropy = 0.0\nsamples = 3\nvalue = [0, 3, 0, 0]"] ;
109 -> 110 ;
111 [label="entropy = 0.0\nsamples = 2\nvalue = [2, 0, 0, 0]"] ;
109 -> 111 ;
112 [label="entropy = 0.0\nsamples = 11\nvalue = [0, 11, 0, 0]"] ;
108 -> 112 ;
113 [label="entropy = 0.0\nsamples = 23\nvalue = [0, 23, 0, 0]"] ;
105 -> 113 ;
114 [label="entropy = 0.0\nsamples = 47\nvalue = [0, 47, 0, 0]"] ;
104 -> 114 ;
115 [label="service <= 3.5\nentropy = 0.923\nsamples = 71\nvalue = [47, 24, 0, 0]"] ;
95 -> 115 ;
116 [label="space <= 1.5\nentropy = 0.874\nsamples = 34\nvalue = [10, 24, 0, 0]"] ;
115 -> 116 ;
117 [label="price <= 2.5\nentropy = 0.881\nsamples = 10\nvalue = [7, 3, 0, 0]"] ;
116 -> 117 ;
118 [label="entropy = 0.0\nsamples = 6\nvalue = [6, 0, 0, 0]"] ;
117 -> 118 ;
119 [label="oil <= 2.5\nentropy = 0.811\nsamples = 4\nvalue = [1, 3, 0, 0]"] ;
117 -> 119 ;
120 [label="entropy = 0.0\nsamples = 1\nvalue = [1, 0, 0, 0]"] ;
119 -> 120 ;
121 [label="entropy = 0.0\nsamples = 3\nvalue = [0, 3, 0, 0]"] ;
119 -> 121 ;
122 [label="price <= 2.5\nentropy = 0.544\nsamples = 24\nvalue = [3, 21, 0, 0]"] ;
116 -> 122 ;
123 [label="space <= 2.5\nentropy = 0.811\nsamples = 12\nvalue = [3, 9, 0, 0]"] ;
122 -> 123 ;
124 [label="oil <= 3.5\nentropy = 0.985\nsamples = 7\nvalue = [3, 4, 0, 0]"] ;
123 -> 124 ;
125 [label="entropy = 0.0\nsamples = 3\nvalue = [3, 0, 0, 0]"] ;
124 -> 125 ;
126 [label="entropy = 0.0\nsamples = 4\nvalue = [0, 4, 0, 0]"] ;
124 -> 126 ;
127 [label="entropy = 0.0\nsamples = 5\nvalue = [0, 5, 0, 0]"] ;
123 -> 127 ;
128 [label="entropy = 0.0\nsamples = 12\nvalue = [0, 12, 0, 0]"] ;
122 -> 128 ;
129 [label="entropy = 0.0\nsamples = 37\nvalue = [37, 0, 0, 0]"] ;
115 -> 129 ;
130 [label="entropy = 0.0\nsamples = 68\nvalue = [68, 0, 0, 0]"] ;
94 -> 130 ;
}