digraph Tree {
node [shape=box, style="filled, rounded", color="black", fontname=helvetica] ;
edge [fontname=helvetica] ;
0 [label=<discount &le; 2.5<br/>entropy = 1.212<br/>samples = 1296<br/>value = [903, 292, 52, 49]<br/>class = good>, fillcolor="#efb287"] ;
1 [label=<entropy = 0.0<br/>samples = 425<br/>value = [425, 0, 0, 0]<br/>class = good>, fillcolor="#e58139"] ;
0 -> 1 [labeldistance=2.5, labelangle=45, headlabel="True"] ;
2 [label=<price &le; 1.5<br/>entropy = 1.48<br/>samples = 871<br/>value = [478, 292, 52, 49]<br/>class = good>, fillcolor="#f7d7bf"] ;
0 -> 2 [labeldistance=2.5, labelangle=-45, headlabel="False"] ;
3 [label=<entropy = 0.0<br/>samples = 287<br/>value = [287, 0, 0, 0]<br/>class = good>, fillcolor="#e58139"] ;
2 -> 3 ;
4 [label=<service &le; 2.5<br/>entropy = 1.638<br/>samples = 584<br/>value = [191, 292, 52, 49]<br/>class = unacc>, fillcolor="#d0f8cc"] ;
2 -> 4 ;
5 [label=<quality &le; 2.5<br/>entropy = 1.716<br/>samples = 298<br/>value = [36, 161, 52, 49]<br/>class = unacc>, fillcolor="#adf3a7"] ;
4 -> 5 ;
6 [label=<price &le; 2.5<br/>entropy = 1.724<br/>samples = 153<br/>value = [5, 57, 52, 39]<br/>class = unacc>, fillcolor="#f6fef5"] ;
5 -> 6 ;
7 [label=<space &le; 1.5<br/>entropy = 1.154<br/>samples = 81<br/>value = [3, 48, 30, 0]<br/>class = unacc>, fillcolor="#bef6b9"] ;
6 -> 7 ;
8 [label=<oil &le; 2.5<br/>entropy = 0.48<br/>samples = 29<br/>value = [3, 26, 0, 0]<br/>class = unacc>, fillcolor="#5ce850"] ;
7 -> 8 ;
9 [label=<discount &le; 3.5<br/>entropy = 0.985<br/>samples = 7<br/>value = [3, 4, 0, 0]<br/>class = unacc>, fillcolor="#d1f8ce"] ;
8 -> 9 ;
10 [label=<entropy = 0.0<br/>samples = 3<br/>value = [3, 0, 0, 0]<br/>class = good>, fillcolor="#e58139"] ;
9 -> 10 ;
11 [label=<entropy = 0.0<br/>samples = 4<br/>value = [0, 4, 0, 0]<br/>class = unacc>, fillcolor="#47e539"] ;
9 -> 11 ;
12 [label=<entropy = 0.0<br/>samples = 22<br/>value = [0, 22, 0, 0]<br/>class = unacc>, fillcolor="#47e539"] ;
8 -> 12 ;
13 [label=<quality &le; 1.5<br/>entropy = 0.983<br/>samples = 52<br/>value = [0, 22, 30, 0]<br/>class = vgood>, fillcolor="#cae5f8"] ;
7 -> 13 ;
14 [label=<oil &le; 3.5<br/>entropy = 0.764<br/>samples = 27<br/>value = [0, 6, 21, 0]<br/>class = vgood>, fillcolor="#72b9ec"] ;
13 -> 14 ;
15 [label=<space &le; 2.5<br/>entropy = 1.0<br/>samples = 12<br/>value = [0, 6, 6, 0]<br/>class = unacc>, fillcolor="#ffffff"] ;
14 -> 15 ;
16 [label=<oil &le; 2.5<br/>entropy = 0.592<br/>samples = 7<br/>value = [0, 6, 1, 0]<br/>class = unacc>, fillcolor="#66e95a"] ;
15 -> 16 ;
17 [label=<entropy = 0.0<br/>samples = 4<br/>value = [0, 4, 0, 0]<br/>class = unacc>, fillcolor="#47e539"] ;
16 -> 17 ;
18 [label=<discount &le; 3.5<br/>entropy = 0.918<br/>samples = 3<br/>value = [0, 2, 1, 0]<br/>class = unacc>, fillcolor="#a3f29c"] ;
16 -> 18 ;
19 [label=<entropy = 0.0<br/>samples = 1<br/>value = [0, 0, 1, 0]<br/>class = vgood>, fillcolor="#399de5"] ;
18 -> 19 ;
20 [label=<entropy = 0.0<br/>samples = 2<br/>value = [0, 2, 0, 0]<br/>class = unacc>, fillcolor="#47e539"] ;
18 -> 20 ;
21 [label=<entropy = 0.0<br/>samples = 5<br/>value = [0, 0, 5, 0]<br/>class = vgood>, fillcolor="#399de5"] ;
15 -> 21 ;
22 [label=<entropy = 0.0<br/>samples = 15<br/>value = [0, 0, 15, 0]<br/>class = vgood>, fillcolor="#399de5"] ;
14 -> 22 ;
23 [label=<service &le; 1.5<br/>entropy = 0.943<br/>samples = 25<br/>value = [0, 16, 9, 0]<br/>class = unacc>, fillcolor="#aef4a8"] ;
13 -> 23 ;
24 [label=<space &le; 2.5<br/>entropy = 0.684<br/>samples = 11<br/>value = [0, 2, 9, 0]<br/>class = vgood>, fillcolor="#65b3eb"] ;
23 -> 24 ;
25 [label=<oil &le; 3.5<br/>entropy = 0.971<br/>samples = 5<br/>value = [0, 2, 3, 0]<br/>class = vgood>, fillcolor="#bddef6"] ;
24 -> 25 ;
26 [label=<discount &le; 3.5<br/>entropy = 0.918<br/>samples = 3<br/>value = [0, 2, 1, 0]<br/>class = unacc>, fillcolor="#a3f29c"] ;
25 -> 26 ;
27 [label=<oil &le; 2.5<br/>entropy = 1.0<br/>samples = 2<br/>value = [0, 1, 1, 0]<br/>class = unacc>, fillcolor="#ffffff"] ;
26 -> 27 ;
28 [label=<entropy = 0.0<br/>samples = 1<br/>value = [0, 1, 0, 0]<br/>class = unacc>, fillcolor="#47e539"] ;
27 -> 28 ;
29 [label=<entropy = 0.0<br/>samples = 1<br/>value = [0, 0, 1, 0]<br/>class = vgood>, fillcolor="#399de5"] ;
27 -> 29 ;
30 [label=<entropy = 0.0<br/>samples = 1<br/>value = [0, 1, 0, 0]<br/>class = unacc>, fillcolor="#47e539"] ;
26 -> 30 ;
31 [label=<entropy = 0.0<br/>samples = 2<br/>value = [0, 0, 2, 0]<br/>class = vgood>, fillcolor="#399de5"] ;
25 -> 31 ;
32 [label=<entropy = 0.0<br/>samples = 6<br/>value = [0, 0, 6, 0]<br/>class = vgood>, fillcolor="#399de5"] ;
24 -> 32 ;
33 [label=<entropy = 0.0<br/>samples = 14<br/>value = [0, 14, 0, 0]<br/>class = unacc>, fillcolor="#47e539"] ;
23 -> 33 ;
34 [label=<space &le; 1.5<br/>entropy = 1.52<br/>samples = 72<br/>value = [2, 9, 22, 39]<br/>class = acc>, fillcolor="#f1bcf6"] ;
6 -> 34 ;
35 [label=<quality &le; 1.5<br/>entropy = 1.189<br/>samples = 24<br/>value = [2, 6, 16, 0]<br/>class = vgood>, fillcolor="#91c9f1"] ;
34 -> 35 ;
36 [label=<oil &le; 2.5<br/>entropy = 0.391<br/>samples = 13<br/>value = [1, 0, 12, 0]<br/>class = vgood>, fillcolor="#49a5e7"] ;
35 -> 36 ;
37 [label=<discount &le; 3.5<br/>entropy = 0.918<br/>samples = 3<br/>value = [1, 0, 2, 0]<br/>class = vgood>, fillcolor="#9ccef2"] ;
36 -> 37 ;
38 [label=<entropy = 0.0<br/>samples = 1<br/>value = [1, 0, 0, 0]<br/>class = good>, fillcolor="#e58139"] ;
37 -> 38 ;
39 [label=<entropy = 0.0<br/>samples = 2<br/>value = [0, 0, 2, 0]<br/>class = vgood>, fillcolor="#399de5"] ;
37 -> 39 ;
40 [label=<entropy = 0.0<br/>samples = 10<br/>value = [0, 0, 10, 0]<br/>class = vgood>, fillcolor="#399de5"] ;
36 -> 40 ;
41 [label=<service &le; 1.5<br/>entropy = 1.322<br/>samples = 11<br/>value = [1, 6, 4, 0]<br/>class = unacc>, fillcolor="#caf8c6"] ;
35 -> 41 ;
42 [label=<entropy = 0.0<br/>samples = 4<br/>value = [0, 0, 4, 0]<br/>class = vgood>, fillcolor="#399de5"] ;
41 -> 42 ;
43 [label=<oil &le; 2.5<br/>entropy = 0.592<br/>samples = 7<br/>value = [1, 6, 0, 0]<br/>class = unacc>, fillcolor="#66e95a"] ;
41 -> 43 ;
44 [label=<discount &le; 3.5<br/>entropy = 1.0<br/>samples = 2<br/>value = [1, 1, 0, 0]<br/>class = good>, fillcolor="#ffffff"] ;
43 -> 44 ;
45 [label=<entropy = 0.0<br/>samples = 1<br/>value = [1, 0, 0, 0]<br/>class = good>, fillcolor="#e58139"] ;
44 -> 45 ;
46 [label=<entropy = 0.0<br/>samples = 1<br/>value = [0, 1, 0, 0]<br/>class = unacc>, fillcolor="#47e539"] ;
44 -> 46 ;
47 [label=<entropy = 0.0<br/>samples = 5<br/>value = [0, 5, 0, 0]<br/>class = unacc>, fillcolor="#47e539"] ;
43 -> 47 ;
48 [label=<space &le; 2.5<br/>entropy = 0.868<br/>samples = 48<br/>value = [0, 3, 6, 39]<br/>class = acc>, fillcolor="#e063eb"] ;
34 -> 48 ;
49 [label=<oil &le; 3.5<br/>entropy = 1.325<br/>samples = 23<br/>value = [0, 3, 6, 14]<br/>class = acc>, fillcolor="#eca2f3"] ;
48 -> 49 ;
50 [label=<discount &le; 3.5<br/>entropy = 1.5<br/>samples = 12<br/>value = [0, 3, 6, 3]<br/>class = vgood>, fillcolor="#bddef6"] ;
49 -> 50 ;
51 [label=<oil &le; 2.5<br/>entropy = 1.459<br/>samples = 6<br/>value = [0, 1, 2, 3]<br/>class = acc>, fillcolor="#f5cef8"] ;
50 -> 51 ;
52 [label=<quality &le; 1.5<br/>entropy = 0.918<br/>samples = 3<br/>value = [0, 1, 2, 0]<br/>class = vgood>, fillcolor="#9ccef2"] ;
51 -> 52 ;
53 [label=<entropy = 0.0<br/>samples = 2<br/>value = [0, 0, 2, 0]<br/>class = vgood>, fillcolor="#399de5"] ;
52 -> 53 ;
54 [label=<entropy = 0.0<br/>samples = 1<br/>value = [0, 1, 0, 0]<br/>class = unacc>, fillcolor="#47e539"] ;
52 -> 54 ;
55 [label=<entropy = 0.0<br/>samples = 3<br/>value = [0, 0, 0, 3]<br/>class = acc>, fillcolor="#d739e5"] ;
51 -> 55 ;
56 [label=<service &le; 1.5<br/>entropy = 0.918<br/>samples = 6<br/>value = [0, 2, 4, 0]<br/>class = vgood>, fillcolor="#9ccef2"] ;
50 -> 56 ;
57 [label=<entropy = 0.0<br/>samples = 2<br/>value = [0, 0, 2, 0]<br/>class = vgood>, fillcolor="#399de5"] ;
56 -> 57 ;
58 [label=<quality &le; 1.5<br/>entropy = 1.0<br/>samples = 4<br/>value = [0, 2, 2, 0]<br/>class = unacc>, fillcolor="#ffffff"] ;
56 -> 58 ;
59 [label=<entropy = 0.0<br/>samples = 2<br/>value = [0, 0, 2, 0]<br/>class = vgood>, fillcolor="#399de5"] ;
58 -> 59 ;
60 [label=<entropy = 0.0<br/>samples = 2<br/>value = [0, 2, 0, 0]<br/>class = unacc>, fillcolor="#47e539"] ;
58 -> 60 ;
61 [label=<entropy = 0.0<br/>samples = 11<br/>value = [0, 0, 0, 11]<br/>class = acc>, fillcolor="#d739e5"] ;
49 -> 61 ;
62 [label=<entropy = 0.0<br/>samples = 25<br/>value = [0, 0, 0, 25]<br/>class = acc>, fillcolor="#d739e5"] ;
48 -> 62 ;
63 [label=<price &le; 2.5<br/>entropy = 1.086<br/>samples = 145<br/>value = [31, 104, 0, 10]<br/>class = unacc>, fillcolor="#89ee80"] ;
5 -> 63 ;
64 [label=<space &le; 2.5<br/>entropy = 0.964<br/>samples = 72<br/>value = [28, 44, 0, 0]<br/>class = unacc>, fillcolor="#bcf6b7"] ;
63 -> 64 ;
65 [label=<space &le; 1.5<br/>entropy = 0.985<br/>samples = 49<br/>value = [28, 21, 0, 0]<br/>class = good>, fillcolor="#f8e0ce"] ;
64 -> 65 ;
66 [label=<service &le; 1.5<br/>entropy = 0.738<br/>samples = 24<br/>value = [19, 5, 0, 0]<br/>class = good>, fillcolor="#eca26d"] ;
65 -> 66 ;
67 [label=<quality &le; 3.5<br/>entropy = 0.994<br/>samples = 11<br/>value = [6, 5, 0, 0]<br/>class = good>, fillcolor="#fbeade"] ;
66 -> 67 ;
68 [label=<entropy = 0.0<br/>samples = 5<br/>value = [0, 5, 0, 0]<br/>class = unacc>, fillcolor="#47e539"] ;
67 -> 68 ;
69 [label=<entropy = 0.0<br/>samples = 6<br/>value = [6, 0, 0, 0]<br/>class = good>, fillcolor="#e58139"] ;
67 -> 69 ;
70 [label=<entropy = 0.0<br/>samples = 13<br/>value = [13, 0, 0, 0]<br/>class = good>, fillcolor="#e58139"] ;
66 -> 70 ;
71 [label=<oil &le; 3.5<br/>entropy = 0.943<br/>samples = 25<br/>value = [9, 16, 0, 0]<br/>class = unacc>, fillcolor="#aef4a8"] ;
65 -> 71 ;
72 [label=<service &le; 1.5<br/>entropy = 0.971<br/>samples = 15<br/>value = [9, 6, 0, 0]<br/>class = good>, fillcolor="#f6d5bd"] ;
71 -> 72 ;
73 [label=<quality &le; 3.5<br/>entropy = 0.954<br/>samples = 8<br/>value = [3, 5, 0, 0]<br/>class = unacc>, fillcolor="#b5f5b0"] ;
72 -> 73 ;
74 [label=<entropy = 0.0<br/>samples = 4<br/>value = [0, 4, 0, 0]<br/>class = unacc>, fillcolor="#47e539"] ;
73 -> 74 ;
75 [label=<discount &le; 3.5<br/>entropy = 0.811<br/>samples = 4<br/>value = [3, 1, 0, 0]<br/>class = good>, fillcolor="#eeab7b"] ;
73 -> 75 ;
76 [label=<oil &le; 2.5<br/>entropy = 1.0<br/>samples = 2<br/>value = [1, 1, 0, 0]<br/>class = good>, fillcolor="#ffffff"] ;
75 -> 76 ;
77 [label=<entropy = 0.0<br/>samples = 1<br/>value = [1, 0, 0, 0]<br/>class = good>, fillcolor="#e58139"] ;
76 -> 77 ;
78 [label=<entropy = 0.0<br/>samples = 1<br/>value = [0, 1, 0, 0]<br/>class = unacc>, fillcolor="#47e539"] ;
76 -> 78 ;
79 [label=<entropy = 0.0<br/>samples = 2<br/>value = [2, 0, 0, 0]<br/>class = good>, fillcolor="#e58139"] ;
75 -> 79 ;
80 [label=<oil &le; 2.5<br/>entropy = 0.592<br/>samples = 7<br/>value = [6, 1, 0, 0]<br/>class = good>, fillcolor="#e9965a"] ;
72 -> 80 ;
81 [label=<entropy = 0.0<br/>samples = 4<br/>value = [4, 0, 0, 0]<br/>class = good>, fillcolor="#e58139"] ;
80 -> 81 ;
82 [label=<discount &le; 3.5<br/>entropy = 0.918<br/>samples = 3<br/>value = [2, 1, 0, 0]<br/>class = good>, fillcolor="#f2c09c"] ;
80 -> 82 ;
83 [label=<entropy = 0.0<br/>samples = 1<br/>value = [0, 1, 0, 0]<br/>class = unacc>, fillcolor="#47e539"] ;
82 -> 83 ;
84 [label=<entropy = 0.0<br/>samples = 2<br/>value = [2, 0, 0, 0]<br/>class = good>, fillcolor="#e58139"] ;
82 -> 84 ;
85 [label=<entropy = 0.0<br/>samples = 10<br/>value = [0, 10, 0, 0]<br/>class = unacc>, fillcolor="#47e539"] ;
71 -> 85 ;
86 [label=<entropy = 0.0<br/>samples = 23<br/>value = [0, 23, 0, 0]<br/>class = unacc>, fillcolor="#47e539"] ;
64 -> 86 ;
87 [label=<service &le; 1.5<br/>entropy = 0.815<br/>samples = 73<br/>value = [3, 60, 0, 10]<br/>class = unacc>, fillcolor="#6dea62"] ;
63 -> 87 ;
88 [label=<quality &le; 3.5<br/>entropy = 1.166<br/>samples = 34<br/>value = [2, 22, 0, 10]<br/>class = unacc>, fillcolor="#a3f29c"] ;
87 -> 88 ;
89 [label=<space &le; 1.5<br/>entropy = 1.233<br/>samples = 18<br/>value = [1, 7, 0, 10]<br/>class = acc>, fillcolor="#f4c9f8"] ;
88 -> 89 ;
90 [label=<oil &le; 2.5<br/>entropy = 0.65<br/>samples = 6<br/>value = [1, 5, 0, 0]<br/>class = unacc>, fillcolor="#6cea61"] ;
89 -> 90 ;
91 [label=<discount &le; 3.5<br/>entropy = 1.0<br/>samples = 2<br/>value = [1, 1, 0, 0]<br/>class = good>, fillcolor="#ffffff"] ;
90 -> 91 ;
92 [label=<entropy = 0.0<br/>samples = 1<br/>value = [1, 0, 0, 0]<br/>class = good>, fillcolor="#e58139"] ;
91 -> 92 ;
93 [label=<entropy = 0.0<br/>samples = 1<br/>value = [0, 1, 0, 0]<br/>class = unacc>, fillcolor="#47e539"] ;
91 -> 93 ;
94 [label=<entropy = 0.0<br/>samples = 4<br/>value = [0, 4, 0, 0]<br/>class = unacc>, fillcolor="#47e539"] ;
90 -> 94 ;
95 [label=<space &le; 2.5<br/>entropy = 0.65<br/>samples = 12<br/>value = [0, 2, 0, 10]<br/>class = acc>, fillcolor="#df61ea"] ;
89 -> 95 ;
96 [label=<oil &le; 3.5<br/>entropy = 0.918<br/>samples = 6<br/>value = [0, 2, 0, 4]<br/>class = acc>, fillcolor="#eb9cf2"] ;
95 -> 96 ;
97 [label=<discount &le; 3.5<br/>entropy = 0.918<br/>samples = 3<br/>value = [0, 2, 0, 1]<br/>class = unacc>, fillcolor="#a3f29c"] ;
96 -> 97 ;
98 [label=<entropy = 0.0<br/>samples = 1<br/>value = [0, 0, 0, 1]<br/>class = acc>, fillcolor="#d739e5"] ;
97 -> 98 ;
99 [label=<entropy = 0.0<br/>samples = 2<br/>value = [0, 2, 0, 0]<br/>class = unacc>, fillcolor="#47e539"] ;
97 -> 99 ;
100 [label=<entropy = 0.0<br/>samples = 3<br/>value = [0, 0, 0, 3]<br/>class = acc>, fillcolor="#d739e5"] ;
96 -> 100 ;
101 [label=<entropy = 0.0<br/>samples = 6<br/>value = [0, 0, 0, 6]<br/>class = acc>, fillcolor="#d739e5"] ;
95 -> 101 ;
102 [label=<oil &le; 2.5<br/>entropy = 0.337<br/>samples = 16<br/>value = [1, 15, 0, 0]<br/>class = unacc>, fillcolor="#53e746"] ;
88 -> 102 ;
103 [label=<discount &le; 3.5<br/>entropy = 0.918<br/>samples = 3<br/>value = [1, 2, 0, 0]<br/>class = unacc>, fillcolor="#a3f29c"] ;
102 -> 103 ;
104 [label=<entropy = 0.0<br/>samples = 1<br/>value = [1, 0, 0, 0]<br/>class = good>, fillcolor="#e58139"] ;
103 -> 104 ;
105 [label=<entropy = 0.0<br/>samples = 2<br/>value = [0, 2, 0, 0]<br/>class = unacc>, fillcolor="#47e539"] ;
103 -> 105 ;
106 [label=<entropy = 0.0<br/>samples = 13<br/>value = [0, 13, 0, 0]<br/>class = unacc>, fillcolor="#47e539"] ;
102 -> 106 ;
107 [label=<oil &le; 2.5<br/>entropy = 0.172<br/>samples = 39<br/>value = [1, 38, 0, 0]<br/>class = unacc>, fillcolor="#4ce63e"] ;
87 -> 107 ;
108 [label=<space &le; 1.5<br/>entropy = 0.439<br/>samples = 11<br/>value = [1, 10, 0, 0]<br/>class = unacc>, fillcolor="#59e84d"] ;
107 -> 108 ;
109 [label=<discount &le; 3.5<br/>entropy = 0.918<br/>samples = 3<br/>value = [1, 2, 0, 0]<br/>class = unacc>, fillcolor="#a3f29c"] ;
108 -> 109 ;
110 [label=<entropy = 0.0<br/>samples = 1<br/>value = [1, 0, 0, 0]<br/>class = good>, fillcolor="#e58139"] ;
109 -> 110 ;
111 [label=<entropy = 0.0<br/>samples = 2<br/>value = [0, 2, 0, 0]<br/>class = unacc>, fillcolor="#47e539"] ;
109 -> 111 ;
112 [label=<entropy = 0.0<br/>samples = 8<br/>value = [0, 8, 0, 0]<br/>class = unacc>, fillcolor="#47e539"] ;
108 -> 112 ;
113 [label=<entropy = 0.0<br/>samples = 28<br/>value = [0, 28, 0, 0]<br/>class = unacc>, fillcolor="#47e539"] ;
107 -> 113 ;
114 [label=<quality &le; 3.5<br/>entropy = 0.995<br/>samples = 286<br/>value = [155, 131, 0, 0]<br/>class = good>, fillcolor="#fbebe0"] ;
4 -> 114 ;
115 [label=<space &le; 1.5<br/>entropy = 0.951<br/>samples = 208<br/>value = [77, 131, 0, 0]<br/>class = unacc>, fillcolor="#b3f4ad"] ;
114 -> 115 ;
116 [label=<price &le; 2.5<br/>entropy = 0.932<br/>samples = 72<br/>value = [47, 25, 0, 0]<br/>class = good>, fillcolor="#f3c4a2"] ;
115 -> 116 ;
117 [label=<entropy = 0.0<br/>samples = 38<br/>value = [38, 0, 0, 0]<br/>class = good>, fillcolor="#e58139"] ;
116 -> 117 ;
118 [label=<quality &le; 2.5<br/>entropy = 0.834<br/>samples = 34<br/>value = [9, 25, 0, 0]<br/>class = unacc>, fillcolor="#89ee80"] ;
116 -> 118 ;
119 [label=<oil &le; 2.5<br/>entropy = 0.414<br/>samples = 24<br/>value = [2, 22, 0, 0]<br/>class = unacc>, fillcolor="#58e74b"] ;
118 -> 119 ;
120 [label=<discount &le; 3.5<br/>entropy = 0.971<br/>samples = 5<br/>value = [2, 3, 0, 0]<br/>class = unacc>, fillcolor="#c2f6bd"] ;
119 -> 120 ;
121 [label=<entropy = 0.0<br/>samples = 2<br/>value = [2, 0, 0, 0]<br/>class = good>, fillcolor="#e58139"] ;
120 -> 121 ;
122 [label=<entropy = 0.0<br/>samples = 3<br/>value = [0, 3, 0, 0]<br/>class = unacc>, fillcolor="#47e539"] ;
120 -> 122 ;
123 [label=<entropy = 0.0<br/>samples = 19<br/>value = [0, 19, 0, 0]<br/>class = unacc>, fillcolor="#47e539"] ;
119 -> 123 ;
124 [label=<service &le; 3.5<br/>entropy = 0.881<br/>samples = 10<br/>value = [7, 3, 0, 0]<br/>class = good>, fillcolor="#f0b78e"] ;
118 -> 124 ;
125 [label=<oil &le; 2.5<br/>entropy = 0.811<br/>samples = 4<br/>value = [1, 3, 0, 0]<br/>class = unacc>, fillcolor="#84ee7b"] ;
124 -> 125 ;
126 [label=<discount &le; 3.5<br/>entropy = 1.0<br/>samples = 2<br/>value = [1, 1, 0, 0]<br/>class = good>, fillcolor="#ffffff"] ;
125 -> 126 ;
127 [label=<entropy = 0.0<br/>samples = 1<br/>value = [1, 0, 0, 0]<br/>class = good>, fillcolor="#e58139"] ;
126 -> 127 ;
128 [label=<entropy = 0.0<br/>samples = 1<br/>value = [0, 1, 0, 0]<br/>class = unacc>, fillcolor="#47e539"] ;
126 -> 128 ;
129 [label=<entropy = 0.0<br/>samples = 2<br/>value = [0, 2, 0, 0]<br/>class = unacc>, fillcolor="#47e539"] ;
125 -> 129 ;
130 [label=<entropy = 0.0<br/>samples = 6<br/>value = [6, 0, 0, 0]<br/>class = good>, fillcolor="#e58139"] ;
124 -> 130 ;
131 [label=<quality &le; 2.5<br/>entropy = 0.761<br/>samples = 136<br/>value = [30, 106, 0, 0]<br/>class = unacc>, fillcolor="#7bec71"] ;
115 -> 131 ;
132 [label=<price &le; 2.5<br/>entropy = 0.356<br/>samples = 89<br/>value = [6, 83, 0, 0]<br/>class = unacc>, fillcolor="#54e747"] ;
131 -> 132 ;
133 [label=<oil &le; 3.5<br/>entropy = 0.592<br/>samples = 42<br/>value = [6, 36, 0, 0]<br/>class = unacc>, fillcolor="#66e95a"] ;
132 -> 133 ;
134 [label=<space &le; 2.5<br/>entropy = 0.918<br/>samples = 18<br/>value = [6, 12, 0, 0]<br/>class = unacc>, fillcolor="#a3f29c"] ;
133 -> 134 ;
135 [label=<oil &le; 2.5<br/>entropy = 0.971<br/>samples = 10<br/>value = [6, 4, 0, 0]<br/>class = good>, fillcolor="#f6d5bd"] ;
134 -> 135 ;
136 [label=<entropy = 0.0<br/>samples = 4<br/>value = [4, 0, 0, 0]<br/>class = good>, fillcolor="#e58139"] ;
135 -> 136 ;
137 [label=<discount &le; 3.5<br/>entropy = 0.918<br/>samples = 6<br/>value = [2, 4, 0, 0]<br/>class = unacc>, fillcolor="#a3f29c"] ;
135 -> 137 ;
138 [label=<entropy = 0.0<br/>samples = 4<br/>value = [0, 4, 0, 0]<br/>class = unacc>, fillcolor="#47e539"] ;
137 -> 138 ;
139 [label=<entropy = 0.0<br/>samples = 2<br/>value = [2, 0, 0, 0]<br/>class = good>, fillcolor="#e58139"] ;
137 -> 139 ;
140 [label=<entropy = 0.0<br/>samples = 8<br/>value = [0, 8, 0, 0]<br/>class = unacc>, fillcolor="#47e539"] ;
134 -> 140 ;
141 [label=<entropy = 0.0<br/>samples = 24<br/>value = [0, 24, 0, 0]<br/>class = unacc>, fillcolor="#47e539"] ;
133 -> 141 ;
142 [label=<entropy = 0.0<br/>samples = 47<br/>value = [0, 47, 0, 0]<br/>class = unacc>, fillcolor="#47e539"] ;
132 -> 142 ;
143 [label=<service &le; 3.5<br/>entropy = 1.0<br/>samples = 47<br/>value = [24, 23, 0, 0]<br/>class = good>, fillcolor="#fefaf7"] ;
131 -> 143 ;
144 [label=<oil &le; 3.5<br/>entropy = 0.516<br/>samples = 26<br/>value = [3, 23, 0, 0]<br/>class = unacc>, fillcolor="#5fe853"] ;
143 -> 144 ;
145 [label=<price &le; 2.5<br/>entropy = 0.845<br/>samples = 11<br/>value = [3, 8, 0, 0]<br/>class = unacc>, fillcolor="#8cef83"] ;
144 -> 145 ;
146 [label=<space &le; 2.5<br/>entropy = 0.971<br/>samples = 5<br/>value = [3, 2, 0, 0]<br/>class = good>, fillcolor="#f6d5bd"] ;
145 -> 146 ;
147 [label=<entropy = 0.0<br/>samples = 3<br/>value = [3, 0, 0, 0]<br/>class = good>, fillcolor="#e58139"] ;
146 -> 147 ;
148 [label=<entropy = 0.0<br/>samples = 2<br/>value = [0, 2, 0, 0]<br/>class = unacc>, fillcolor="#47e539"] ;
146 -> 148 ;
149 [label=<entropy = 0.0<br/>samples = 6<br/>value = [0, 6, 0, 0]<br/>class = unacc>, fillcolor="#47e539"] ;
145 -> 149 ;
150 [label=<entropy = 0.0<br/>samples = 15<br/>value = [0, 15, 0, 0]<br/>class = unacc>, fillcolor="#47e539"] ;
144 -> 150 ;
151 [label=<entropy = 0.0<br/>samples = 21<br/>value = [21, 0, 0, 0]<br/>class = good>, fillcolor="#e58139"] ;
143 -> 151 ;
152 [label=<entropy = 0.0<br/>samples = 78<br/>value = [78, 0, 0, 0]<br/>class = good>, fillcolor="#e58139"] ;
114 -> 152 ;
}