digraph Tree {
node [shape=box, style="filled, rounded", color="black", fontname=helvetica] ;
edge [fontname=helvetica] ;
0 [label=<discount &le; 2.5<br/>entropy = 1.215<br/>samples = 1296<br/>value = [907, 284, 54, 51]<br/>class = unacc>, fillcolor="#efb185"] ;
1 [label=<entropy = 0.0<br/>samples = 431<br/>value = [431, 0, 0, 0]<br/>class = unacc>, fillcolor="#e58139"] ;
0 -> 1 [labeldistance=2.5, labelangle=45, headlabel="True"] ;
2 [label=<price &le; 1.5<br/>entropy = 1.492<br/>samples = 865<br/>value = [476, 284, 54, 51]<br/>class = unacc>, fillcolor="#f6d5be"] ;
0 -> 2 [labeldistance=2.5, labelangle=-45, headlabel="False"] ;
3 [label=<entropy = 0.0<br/>samples = 285<br/>value = [285, 0, 0, 0]<br/>class = unacc>, fillcolor="#e58139"] ;
2 -> 3 ;
4 [label=<service &le; 2.5<br/>entropy = 1.659<br/>samples = 580<br/>value = [191, 284, 54, 51]<br/>class = acc>, fillcolor="#d3f9d0"] ;
2 -> 4 ;
5 [label=<quality &le; 2.5<br/>entropy = 1.776<br/>samples = 294<br/>value = [40, 149, 54, 51]<br/>class = acc>, fillcolor="#b6f5b1"] ;
4 -> 5 ;
6 [label=<price &le; 2.5<br/>entropy = 1.758<br/>samples = 148<br/>value = [6, 46, 54, 42]<br/>class = good>, fillcolor="#eff7fd"] ;
5 -> 6 ;
7 [label=<space &le; 1.5<br/>entropy = 1.201<br/>samples = 71<br/>value = [3, 38, 30, 0]<br/>class = acc>, fillcolor="#dbfad8"] ;
6 -> 7 ;
8 [label=<oil &le; 2.5<br/>entropy = 0.559<br/>samples = 23<br/>value = [3, 20, 0, 0]<br/>class = acc>, fillcolor="#63e957"] ;
7 -> 8 ;
9 [label=<discount &le; 3.5<br/>entropy = 0.811<br/>samples = 4<br/>value = [3, 1, 0, 0]<br/>class = unacc>, fillcolor="#eeab7b"] ;
8 -> 9 ;
10 [label=<entropy = 0.0<br/>samples = 3<br/>value = [3, 0, 0, 0]<br/>class = unacc>, fillcolor="#e58139"] ;
9 -> 10 ;
11 [label=<entropy = 0.0<br/>samples = 1<br/>value = [0, 1, 0, 0]<br/>class = acc>, fillcolor="#47e539"] ;
9 -> 11 ;
12 [label=<entropy = 0.0<br/>samples = 19<br/>value = [0, 19, 0, 0]<br/>class = acc>, fillcolor="#47e539"] ;
8 -> 12 ;
13 [label=<quality &le; 1.5<br/>entropy = 0.954<br/>samples = 48<br/>value = [0, 18, 30, 0]<br/>class = good>, fillcolor="#b0d8f5"] ;
7 -> 13 ;
14 [label=<oil &le; 3.5<br/>entropy = 0.706<br/>samples = 26<br/>value = [0, 5, 21, 0]<br/>class = good>, fillcolor="#68b4eb"] ;
13 -> 14 ;
15 [label=<space &le; 2.5<br/>entropy = 0.961<br/>samples = 13<br/>value = [0, 5, 8, 0]<br/>class = good>, fillcolor="#b5daf5"] ;
14 -> 15 ;
16 [label=<oil &le; 2.5<br/>entropy = 0.863<br/>samples = 7<br/>value = [0, 5, 2, 0]<br/>class = acc>, fillcolor="#91ef88"] ;
15 -> 16 ;
17 [label=<entropy = 0.0<br/>samples = 4<br/>value = [0, 4, 0, 0]<br/>class = acc>, fillcolor="#47e539"] ;
16 -> 17 ;
18 [label=<discount &le; 3.5<br/>entropy = 0.918<br/>samples = 3<br/>value = [0, 1, 2, 0]<br/>class = good>, fillcolor="#9ccef2"] ;
16 -> 18 ;
19 [label=<entropy = 0.0<br/>samples = 2<br/>value = [0, 0, 2, 0]<br/>class = good>, fillcolor="#399de5"] ;
18 -> 19 ;
20 [label=<entropy = 0.0<br/>samples = 1<br/>value = [0, 1, 0, 0]<br/>class = acc>, fillcolor="#47e539"] ;
18 -> 20 ;
21 [label=<entropy = 0.0<br/>samples = 6<br/>value = [0, 0, 6, 0]<br/>class = good>, fillcolor="#399de5"] ;
15 -> 21 ;
22 [label=<entropy = 0.0<br/>samples = 13<br/>value = [0, 0, 13, 0]<br/>class = good>, fillcolor="#399de5"] ;
14 -> 22 ;
23 [label=<service &le; 1.5<br/>entropy = 0.976<br/>samples = 22<br/>value = [0, 13, 9, 0]<br/>class = acc>, fillcolor="#c6f7c2"] ;
13 -> 23 ;
24 [label=<oil &le; 2.5<br/>entropy = 0.684<br/>samples = 11<br/>value = [0, 2, 9, 0]<br/>class = good>, fillcolor="#65b3eb"] ;
23 -> 24 ;
25 [label=<space &le; 2.5<br/>entropy = 1.0<br/>samples = 4<br/>value = [0, 2, 2, 0]<br/>class = acc>, fillcolor="#ffffff"] ;
24 -> 25 ;
26 [label=<entropy = 0.0<br/>samples = 2<br/>value = [0, 2, 0, 0]<br/>class = acc>, fillcolor="#47e539"] ;
25 -> 26 ;
27 [label=<entropy = 0.0<br/>samples = 2<br/>value = [0, 0, 2, 0]<br/>class = good>, fillcolor="#399de5"] ;
25 -> 27 ;
28 [label=<entropy = 0.0<br/>samples = 7<br/>value = [0, 0, 7, 0]<br/>class = good>, fillcolor="#399de5"] ;
24 -> 28 ;
29 [label=<entropy = 0.0<br/>samples = 11<br/>value = [0, 11, 0, 0]<br/>class = acc>, fillcolor="#47e539"] ;
23 -> 29 ;
30 [label=<space &le; 1.5<br/>entropy = 1.523<br/>samples = 77<br/>value = [3, 8, 24, 42]<br/>class = vgood>, fillcolor="#f1bcf6"] ;
6 -> 30 ;
31 [label=<oil &le; 2.5<br/>entropy = 1.21<br/>samples = 25<br/>value = [3, 5, 17, 0]<br/>class = good>, fillcolor="#88c4ef"] ;
30 -> 31 ;
32 [label=<discount &le; 3.5<br/>entropy = 0.971<br/>samples = 5<br/>value = [3, 0, 2, 0]<br/>class = unacc>, fillcolor="#f6d5bd"] ;
31 -> 32 ;
33 [label=<entropy = 0.0<br/>samples = 3<br/>value = [3, 0, 0, 0]<br/>class = unacc>, fillcolor="#e58139"] ;
32 -> 33 ;
34 [label=<entropy = 0.0<br/>samples = 2<br/>value = [0, 0, 2, 0]<br/>class = good>, fillcolor="#399de5"] ;
32 -> 34 ;
35 [label=<service &le; 1.5<br/>entropy = 0.811<br/>samples = 20<br/>value = [0, 5, 15, 0]<br/>class = good>, fillcolor="#7bbeee"] ;
31 -> 35 ;
36 [label=<entropy = 0.0<br/>samples = 11<br/>value = [0, 0, 11, 0]<br/>class = good>, fillcolor="#399de5"] ;
35 -> 36 ;
37 [label=<quality &le; 1.5<br/>entropy = 0.991<br/>samples = 9<br/>value = [0, 5, 4, 0]<br/>class = acc>, fillcolor="#dafad7"] ;
35 -> 37 ;
38 [label=<entropy = 0.0<br/>samples = 4<br/>value = [0, 0, 4, 0]<br/>class = good>, fillcolor="#399de5"] ;
37 -> 38 ;
39 [label=<entropy = 0.0<br/>samples = 5<br/>value = [0, 5, 0, 0]<br/>class = acc>, fillcolor="#47e539"] ;
37 -> 39 ;
40 [label=<space &le; 2.5<br/>entropy = 0.876<br/>samples = 52<br/>value = [0, 3, 7, 42]<br/>class = vgood>, fillcolor="#e065eb"] ;
30 -> 40 ;
41 [label=<oil &le; 3.5<br/>entropy = 1.347<br/>samples = 24<br/>value = [0, 3, 7, 14]<br/>class = vgood>, fillcolor="#efadf4"] ;
40 -> 41 ;
42 [label=<quality &le; 1.5<br/>entropy = 1.457<br/>samples = 13<br/>value = [0, 3, 7, 3]<br/>class = good>, fillcolor="#b0d8f5"] ;
41 -> 42 ;
43 [label=<service &le; 1.5<br/>entropy = 0.65<br/>samples = 6<br/>value = [0, 0, 5, 1]<br/>class = good>, fillcolor="#61b1ea"] ;
42 -> 43 ;
44 [label=<discount &le; 3.5<br/>entropy = 0.918<br/>samples = 3<br/>value = [0, 0, 2, 1]<br/>class = good>, fillcolor="#9ccef2"] ;
43 -> 44 ;
45 [label=<oil &le; 2.5<br/>entropy = 1.0<br/>samples = 2<br/>value = [0, 0, 1, 1]<br/>class = good>, fillcolor="#ffffff"] ;
44 -> 45 ;
46 [label=<entropy = 0.0<br/>samples = 1<br/>value = [0, 0, 1, 0]<br/>class = good>, fillcolor="#399de5"] ;
45 -> 46 ;
47 [label=<entropy = 0.0<br/>samples = 1<br/>value = [0, 0, 0, 1]<br/>class = vgood>, fillcolor="#d739e5"] ;
45 -> 47 ;
48 [label=<entropy = 0.0<br/>samples = 1<br/>value = [0, 0, 1, 0]<br/>class = good>, fillcolor="#399de5"] ;
44 -> 48 ;
49 [label=<entropy = 0.0<br/>samples = 3<br/>value = [0, 0, 3, 0]<br/>class = good>, fillcolor="#399de5"] ;
43 -> 49 ;
50 [label=<service &le; 1.5<br/>entropy = 1.557<br/>samples = 7<br/>value = [0, 3, 2, 2]<br/>class = acc>, fillcolor="#dafad7"] ;
42 -> 50 ;
51 [label=<oil &le; 2.5<br/>entropy = 0.918<br/>samples = 3<br/>value = [0, 0, 2, 1]<br/>class = good>, fillcolor="#9ccef2"] ;
50 -> 51 ;
52 [label=<entropy = 0.0<br/>samples = 1<br/>value = [0, 0, 1, 0]<br/>class = good>, fillcolor="#399de5"] ;
51 -> 52 ;
53 [label=<discount &le; 3.5<br/>entropy = 1.0<br/>samples = 2<br/>value = [0, 0, 1, 1]<br/>class = good>, fillcolor="#ffffff"] ;
51 -> 53 ;
54 [label=<entropy = 0.0<br/>samples = 1<br/>value = [0, 0, 0, 1]<br/>class = vgood>, fillcolor="#d739e5"] ;
53 -> 54 ;
55 [label=<entropy = 0.0<br/>samples = 1<br/>value = [0, 0, 1, 0]<br/>class = good>, fillcolor="#399de5"] ;
53 -> 55 ;
56 [label=<oil &le; 2.5<br/>entropy = 0.811<br/>samples = 4<br/>value = [0, 3, 0, 1]<br/>class = acc>, fillcolor="#84ee7b"] ;
50 -> 56 ;
57 [label=<entropy = 0.0<br/>samples = 2<br/>value = [0, 2, 0, 0]<br/>class = acc>, fillcolor="#47e539"] ;
56 -> 57 ;
58 [label=<discount &le; 3.5<br/>entropy = 1.0<br/>samples = 2<br/>value = [0, 1, 0, 1]<br/>class = acc>, fillcolor="#ffffff"] ;
56 -> 58 ;
59 [label=<entropy = 0.0<br/>samples = 1<br/>value = [0, 0, 0, 1]<br/>class = vgood>, fillcolor="#d739e5"] ;
58 -> 59 ;
60 [label=<entropy = 0.0<br/>samples = 1<br/>value = [0, 1, 0, 0]<br/>class = acc>, fillcolor="#47e539"] ;
58 -> 60 ;
61 [label=<entropy = 0.0<br/>samples = 11<br/>value = [0, 0, 0, 11]<br/>class = vgood>, fillcolor="#d739e5"] ;
41 -> 61 ;
62 [label=<entropy = 0.0<br/>samples = 28<br/>value = [0, 0, 0, 28]<br/>class = vgood>, fillcolor="#d739e5"] ;
40 -> 62 ;
63 [label=<price &le; 2.5<br/>entropy = 1.092<br/>samples = 146<br/>value = [34, 103, 0, 9]<br/>class = acc>, fillcolor="#8eef85"] ;
5 -> 63 ;
64 [label=<space &le; 2.5<br/>entropy = 0.98<br/>samples = 72<br/>value = [30, 42, 0, 0]<br/>class = acc>, fillcolor="#caf8c6"] ;
63 -> 64 ;
65 [label=<space &le; 1.5<br/>entropy = 0.963<br/>samples = 49<br/>value = [30, 19, 0, 0]<br/>class = unacc>, fillcolor="#f5d1b6"] ;
64 -> 65 ;
66 [label=<service &le; 1.5<br/>entropy = 0.706<br/>samples = 26<br/>value = [21, 5, 0, 0]<br/>class = unacc>, fillcolor="#eb9f68"] ;
65 -> 66 ;
67 [label=<quality &le; 3.5<br/>entropy = 0.994<br/>samples = 11<br/>value = [6, 5, 0, 0]<br/>class = unacc>, fillcolor="#fbeade"] ;
66 -> 67 ;
68 [label=<entropy = 0.0<br/>samples = 5<br/>value = [0, 5, 0, 0]<br/>class = acc>, fillcolor="#47e539"] ;
67 -> 68 ;
69 [label=<entropy = 0.0<br/>samples = 6<br/>value = [6, 0, 0, 0]<br/>class = unacc>, fillcolor="#e58139"] ;
67 -> 69 ;
70 [label=<entropy = 0.0<br/>samples = 15<br/>value = [15, 0, 0, 0]<br/>class = unacc>, fillcolor="#e58139"] ;
66 -> 70 ;
71 [label=<oil &le; 3.5<br/>entropy = 0.966<br/>samples = 23<br/>value = [9, 14, 0, 0]<br/>class = acc>, fillcolor="#bdf6b8"] ;
65 -> 71 ;
72 [label=<quality &le; 3.5<br/>entropy = 0.94<br/>samples = 14<br/>value = [9, 5, 0, 0]<br/>class = unacc>, fillcolor="#f3c7a7"] ;
71 -> 72 ;
73 [label=<service &le; 1.5<br/>entropy = 0.985<br/>samples = 7<br/>value = [3, 4, 0, 0]<br/>class = acc>, fillcolor="#d1f8ce"] ;
72 -> 73 ;
74 [label=<entropy = 0.0<br/>samples = 3<br/>value = [0, 3, 0, 0]<br/>class = acc>, fillcolor="#47e539"] ;
73 -> 74 ;
75 [label=<oil &le; 2.5<br/>entropy = 0.811<br/>samples = 4<br/>value = [3, 1, 0, 0]<br/>class = unacc>, fillcolor="#eeab7b"] ;
73 -> 75 ;
76 [label=<entropy = 0.0<br/>samples = 2<br/>value = [2, 0, 0, 0]<br/>class = unacc>, fillcolor="#e58139"] ;
75 -> 76 ;
77 [label=<discount &le; 3.5<br/>entropy = 1.0<br/>samples = 2<br/>value = [1, 1, 0, 0]<br/>class = unacc>, fillcolor="#ffffff"] ;
75 -> 77 ;
78 [label=<entropy = 0.0<br/>samples = 1<br/>value = [0, 1, 0, 0]<br/>class = acc>, fillcolor="#47e539"] ;
77 -> 78 ;
79 [label=<entropy = 0.0<br/>samples = 1<br/>value = [1, 0, 0, 0]<br/>class = unacc>, fillcolor="#e58139"] ;
77 -> 79 ;
80 [label=<discount &le; 3.5<br/>entropy = 0.592<br/>samples = 7<br/>value = [6, 1, 0, 0]<br/>class = unacc>, fillcolor="#e9965a"] ;
72 -> 80 ;
81 [label=<oil &le; 2.5<br/>entropy = 0.918<br/>samples = 3<br/>value = [2, 1, 0, 0]<br/>class = unacc>, fillcolor="#f2c09c"] ;
80 -> 81 ;
82 [label=<entropy = 0.0<br/>samples = 2<br/>value = [2, 0, 0, 0]<br/>class = unacc>, fillcolor="#e58139"] ;
81 -> 82 ;
83 [label=<entropy = 0.0<br/>samples = 1<br/>value = [0, 1, 0, 0]<br/>class = acc>, fillcolor="#47e539"] ;
81 -> 83 ;
84 [label=<entropy = 0.0<br/>samples = 4<br/>value = [4, 0, 0, 0]<br/>class = unacc>, fillcolor="#e58139"] ;
80 -> 84 ;
85 [label=<entropy = 0.0<br/>samples = 9<br/>value = [0, 9, 0, 0]<br/>class = acc>, fillcolor="#47e539"] ;
71 -> 85 ;
86 [label=<entropy = 0.0<br/>samples = 23<br/>value = [0, 23, 0, 0]<br/>class = acc>, fillcolor="#47e539"] ;
64 -> 86 ;
87 [label=<space &le; 1.5<br/>entropy = 0.827<br/>samples = 74<br/>value = [4, 61, 0, 9]<br/>class = acc>, fillcolor="#6cea61"] ;
63 -> 87 ;
88 [label=<oil &le; 2.5<br/>entropy = 0.634<br/>samples = 25<br/>value = [4, 21, 0, 0]<br/>class = acc>, fillcolor="#6aea5f"] ;
87 -> 88 ;
89 [label=<discount &le; 3.5<br/>entropy = 0.918<br/>samples = 6<br/>value = [4, 2, 0, 0]<br/>class = unacc>, fillcolor="#f2c09c"] ;
88 -> 89 ;
90 [label=<entropy = 0.0<br/>samples = 4<br/>value = [4, 0, 0, 0]<br/>class = unacc>, fillcolor="#e58139"] ;
89 -> 90 ;
91 [label=<entropy = 0.0<br/>samples = 2<br/>value = [0, 2, 0, 0]<br/>class = acc>, fillcolor="#47e539"] ;
89 -> 91 ;
92 [label=<entropy = 0.0<br/>samples = 19<br/>value = [0, 19, 0, 0]<br/>class = acc>, fillcolor="#47e539"] ;
88 -> 92 ;
93 [label=<quality &le; 3.5<br/>entropy = 0.688<br/>samples = 49<br/>value = [0, 40, 0, 9]<br/>class = acc>, fillcolor="#70eb66"] ;
87 -> 93 ;
94 [label=<service &le; 1.5<br/>entropy = 0.966<br/>samples = 23<br/>value = [0, 14, 0, 9]<br/>class = acc>, fillcolor="#bdf6b8"] ;
93 -> 94 ;
95 [label=<oil &le; 3.5<br/>entropy = 0.684<br/>samples = 11<br/>value = [0, 2, 0, 9]<br/>class = vgood>, fillcolor="#e065eb"] ;
94 -> 95 ;
96 [label=<space &le; 2.5<br/>entropy = 0.971<br/>samples = 5<br/>value = [0, 2, 0, 3]<br/>class = vgood>, fillcolor="#f2bdf6"] ;
95 -> 96 ;
97 [label=<discount &le; 3.5<br/>entropy = 0.918<br/>samples = 3<br/>value = [0, 2, 0, 1]<br/>class = acc>, fillcolor="#a3f29c"] ;
96 -> 97 ;
98 [label=<oil &le; 2.5<br/>entropy = 1.0<br/>samples = 2<br/>value = [0, 1, 0, 1]<br/>class = acc>, fillcolor="#ffffff"] ;
97 -> 98 ;
99 [label=<entropy = 0.0<br/>samples = 1<br/>value = [0, 1, 0, 0]<br/>class = acc>, fillcolor="#47e539"] ;
98 -> 99 ;
100 [label=<entropy = 0.0<br/>samples = 1<br/>value = [0, 0, 0, 1]<br/>class = vgood>, fillcolor="#d739e5"] ;
98 -> 100 ;
101 [label=<entropy = 0.0<br/>samples = 1<br/>value = [0, 1, 0, 0]<br/>class = acc>, fillcolor="#47e539"] ;
97 -> 101 ;
102 [label=<entropy = 0.0<br/>samples = 2<br/>value = [0, 0, 0, 2]<br/>class = vgood>, fillcolor="#d739e5"] ;
96 -> 102 ;
103 [label=<entropy = 0.0<br/>samples = 6<br/>value = [0, 0, 0, 6]<br/>class = vgood>, fillcolor="#d739e5"] ;
95 -> 103 ;
104 [label=<entropy = 0.0<br/>samples = 12<br/>value = [0, 12, 0, 0]<br/>class = acc>, fillcolor="#47e539"] ;
94 -> 104 ;
105 [label=<entropy = 0.0<br/>samples = 26<br/>value = [0, 26, 0, 0]<br/>class = acc>, fillcolor="#47e539"] ;
93 -> 105 ;
106 [label=<quality &le; 3.5<br/>entropy = 0.998<br/>samples = 286<br/>value = [151, 135, 0, 0]<br/>class = unacc>, fillcolor="#fcf2ea"] ;
4 -> 106 ;
107 [label=<price &le; 2.5<br/>entropy = 0.954<br/>samples = 216<br/>value = [81, 135, 0, 0]<br/>class = acc>, fillcolor="#b5f5b0"] ;
106 -> 107 ;
108 [label=<space &le; 1.5<br/>entropy = 0.982<br/>samples = 102<br/>value = [59, 43, 0, 0]<br/>class = unacc>, fillcolor="#f8ddc9"] ;
107 -> 108 ;
109 [label=<entropy = 0.0<br/>samples = 35<br/>value = [35, 0, 0, 0]<br/>class = unacc>, fillcolor="#e58139"] ;
108 -> 109 ;
110 [label=<quality &le; 2.5<br/>entropy = 0.941<br/>samples = 67<br/>value = [24, 43, 0, 0]<br/>class = acc>, fillcolor="#aef4a8"] ;
108 -> 110 ;
111 [label=<space &le; 2.5<br/>entropy = 0.667<br/>samples = 46<br/>value = [8, 38, 0, 0]<br/>class = acc>, fillcolor="#6eea63"] ;
110 -> 111 ;
112 [label=<oil &le; 3.5<br/>entropy = 0.932<br/>samples = 23<br/>value = [8, 15, 0, 0]<br/>class = acc>, fillcolor="#a9f3a3"] ;
111 -> 112 ;
113 [label=<discount &le; 3.5<br/>entropy = 0.918<br/>samples = 12<br/>value = [8, 4, 0, 0]<br/>class = unacc>, fillcolor="#f2c09c"] ;
112 -> 113 ;
114 [label=<oil &le; 2.5<br/>entropy = 0.918<br/>samples = 6<br/>value = [2, 4, 0, 0]<br/>class = acc>, fillcolor="#a3f29c"] ;
113 -> 114 ;
115 [label=<entropy = 0.0<br/>samples = 2<br/>value = [2, 0, 0, 0]<br/>class = unacc>, fillcolor="#e58139"] ;
114 -> 115 ;
116 [label=<entropy = 0.0<br/>samples = 4<br/>value = [0, 4, 0, 0]<br/>class = acc>, fillcolor="#47e539"] ;
114 -> 116 ;
117 [label=<entropy = 0.0<br/>samples = 6<br/>value = [6, 0, 0, 0]<br/>class = unacc>, fillcolor="#e58139"] ;
113 -> 117 ;
118 [label=<entropy = 0.0<br/>samples = 11<br/>value = [0, 11, 0, 0]<br/>class = acc>, fillcolor="#47e539"] ;
112 -> 118 ;
119 [label=<entropy = 0.0<br/>samples = 23<br/>value = [0, 23, 0, 0]<br/>class = acc>, fillcolor="#47e539"] ;
111 -> 119 ;
120 [label=<service &le; 3.5<br/>entropy = 0.792<br/>samples = 21<br/>value = [16, 5, 0, 0]<br/>class = unacc>, fillcolor="#eda877"] ;
110 -> 120 ;
121 [label=<space &le; 2.5<br/>entropy = 0.863<br/>samples = 7<br/>value = [2, 5, 0, 0]<br/>class = acc>, fillcolor="#91ef88"] ;
120 -> 121 ;
122 [label=<oil &le; 3.0<br/>entropy = 0.918<br/>samples = 3<br/>value = [2, 1, 0, 0]<br/>class = unacc>, fillcolor="#f2c09c"] ;
121 -> 122 ;
123 [label=<entropy = 0.0<br/>samples = 2<br/>value = [2, 0, 0, 0]<br/>class = unacc>, fillcolor="#e58139"] ;
122 -> 123 ;
124 [label=<entropy = 0.0<br/>samples = 1<br/>value = [0, 1, 0, 0]<br/>class = acc>, fillcolor="#47e539"] ;
122 -> 124 ;
125 [label=<entropy = 0.0<br/>samples = 4<br/>value = [0, 4, 0, 0]<br/>class = acc>, fillcolor="#47e539"] ;
121 -> 125 ;
126 [label=<entropy = 0.0<br/>samples = 14<br/>value = [14, 0, 0, 0]<br/>class = unacc>, fillcolor="#e58139"] ;
120 -> 126 ;
127 [label=<quality &le; 2.5<br/>entropy = 0.708<br/>samples = 114<br/>value = [22, 92, 0, 0]<br/>class = acc>, fillcolor="#73eb68"] ;
107 -> 127 ;
128 [label=<oil &le; 2.5<br/>entropy = 0.295<br/>samples = 77<br/>value = [4, 73, 0, 0]<br/>class = acc>, fillcolor="#51e644"] ;
127 -> 128 ;
129 [label=<space &le; 1.5<br/>entropy = 0.684<br/>samples = 22<br/>value = [4, 18, 0, 0]<br/>class = acc>, fillcolor="#70eb65"] ;
128 -> 129 ;
130 [label=<discount &le; 3.5<br/>entropy = 1.0<br/>samples = 8<br/>value = [4, 4, 0, 0]<br/>class = unacc>, fillcolor="#ffffff"] ;
129 -> 130 ;
131 [label=<entropy = 0.0<br/>samples = 4<br/>value = [4, 0, 0, 0]<br/>class = unacc>, fillcolor="#e58139"] ;
130 -> 131 ;
132 [label=<entropy = 0.0<br/>samples = 4<br/>value = [0, 4, 0, 0]<br/>class = acc>, fillcolor="#47e539"] ;
130 -> 132 ;
133 [label=<entropy = 0.0<br/>samples = 14<br/>value = [0, 14, 0, 0]<br/>class = acc>, fillcolor="#47e539"] ;
129 -> 133 ;
134 [label=<entropy = 0.0<br/>samples = 55<br/>value = [0, 55, 0, 0]<br/>class = acc>, fillcolor="#47e539"] ;
128 -> 134 ;
135 [label=<service &le; 3.5<br/>entropy = 0.999<br/>samples = 37<br/>value = [18, 19, 0, 0]<br/>class = acc>, fillcolor="#f5fef5"] ;
127 -> 135 ;
136 [label=<entropy = 0.0<br/>samples = 19<br/>value = [0, 19, 0, 0]<br/>class = acc>, fillcolor="#47e539"] ;
135 -> 136 ;
137 [label=<entropy = 0.0<br/>samples = 18<br/>value = [18, 0, 0, 0]<br/>class = unacc>, fillcolor="#e58139"] ;
135 -> 137 ;
138 [label=<entropy = 0.0<br/>samples = 70<br/>value = [70, 0, 0, 0]<br/>class = unacc>, fillcolor="#e58139"] ;
106 -> 138 ;
}